1.000000 
1.000000 
1.000000 
1.000000 
1.000000 
1.000000 
-1.000000 
-1.000000 
-1.000000 
1.000000 
-1.000000 
-1.000000 
-1.000000 
1.000000 
-1.000000 
-1.000000 
-1.000000 
1.000000 
-1.000000 
-1.000000 
-1.000000 
1.000000 
-1.000000 
-1.000000 
-1.000000 
1.000000 
1.000000 
1.000000 
1.000000 
1.000000 
1.000000 
1.000000 
-1.000000 
1.000000 
-1.000000 
-1.000000 
-1.000000 
-1.000000 
-1.000000 
1.000000 
-1.000000 
1.000000 
-1.000000 
-1.000000 
-1.000000 
-1.000000 
-1.000000 
1.000000 
-1.000000 
1.000000 
-1.000000 
-1.000000 
-1.000000 
-1.000000 
-1.000000 
1.000000 
1.000000 
1.000000 
1.000000 
-1.000000 
-1.000000 
1.000000 
1.000000 
1.000000 
-1.000000 
1.000000 
1.000000 
1.000000 
1.000000 
1.000000 
1.000000 
1.000000 
1.000000 
-1.000000 
-1.000000 
-1.000000 
-1.000000 
-1.000000 
-1.000000 
-1.000000 
1.000000 
-1.000000 
-1.000000 
-1.000000 
-1.000000 
-1.000000 
-1.000000 
-1.000000 
1.000000 
-1.000000 
-1.000000 
-1.000000 
-1.000000 
-1.000000 
-1.000000 
-1.000000 
1.000000 
-1.000000 
-1.000000 
-1.000000 
-1.000000 
-1.000000 
-1.000000 
-1.000000 
1.000000 
-1.000000 
-1.000000 
-1.000000 
-1.000000 
-1.000000 
-1.000000 
-1.000000 
1.000000 
-1.000000 
-1.000000 
-1.000000 
-1.000000 
-1.000000 
-1.000000 
-1.000000 
1.000000 
1.000000 
1.000000 
1.000000 
1.000000 
1.000000 
-1.000000 
-1.000000 
1.000000 
1.000000 
1.000000 
1.000000 
1.000000 
1.000000 
1.000000 
-1.000000 
-1.000000 
1.000000 
-1.000000 
-1.000000 
-1.000000 
-1.000000 
1.000000 
1.000000 
-1.000000 
1.000000 
-1.000000 
-1.000000 
-1.000000 
-1.000000 
-1.000000 
1.000000 
-1.000000 
1.000000 
-1.000000 
-1.000000 
-1.000000 
-1.000000 
-1.000000 
-1.000000 
-1.000000 
1.000000 
-1.000000 
-1.000000 
-1.000000 
-1.000000 
-1.000000 
1.000000 
-1.000000 
1.000000 
-1.000000 
-1.000000 
-1.000000 
-1.000000 
-1.000000 
1.000000 
-1.000000 
1.000000 
-1.000000 
-1.000000 
-1.000000 
-1.000000 
-1.000000 
1.000000 
1.000000 
1.000000 
1.000000 
1.000000 
1.000000 
1.000000 
1.000000 
1.000000 
1.000000 
1.000000 
1.000000 
1.000000 
1.000000 
1.000000 
1.000000 
1.000000 
1.000000 
-1.000000 
-1.000000 
-1.000000 
-1.000000 
-1.000000 
-1.000000 
-1.000000 
1.000000 
-1.000000 
-1.000000 
-1.000000 
-1.000000 
-1.000000 
-1.000000 
-1.000000 
1.000000 
1.000000 
-1.000000 
-1.000000 
-1.000000 
-1.000000 
-1.000000 
-1.000000 
1.000000 
1.000000 
1.000000 
1.000000 
1.000000 
1.000000 
1.000000 
1.000000 
1.000000 
-1.000000 
-1.000000 
-1.000000 
-1.000000 
-1.000000 
-1.000000 
-1.000000 
1.000000 
-1.000000 
-1.000000 
-1.000000 
-1.000000 
-1.000000 
-1.000000 
-1.000000 
1.000000 
1.000000 
1.000000 
1.000000 
1.000000 
1.000000 
1.000000 
1.000000 
-1.000000 
1.000000 
1.000000 
1.000000 
1.000000 
1.000000 
1.000000 
1.000000 
-1.000000 
1.000000 
-1.000000 
-1.000000 
-1.000000 
-1.000000 
-1.000000 
-1.000000 
1.000000 
1.000000 
-1.000000 
-1.000000 
-1.000000 
-1.000000 
-1.000000 
-1.000000 
1.000000 
-1.000000 
-1.000000 
-1.000000 
-1.000000 
-1.000000 
-1.000000 
-1.000000 
1.000000 
1.000000 
1.000000 
1.000000 
1.000000 
1.000000 
1.000000 
1.000000 
1.000000 
-1.000000 
-1.000000 
-1.000000 
-1.000000 
-1.000000 
-1.000000 
-1.000000 
1.000000 
-1.000000 
-1.000000 
-1.000000 
-1.000000 
-1.000000 
-1.000000 
-1.000000 
1.000000 
-1.000000 
-1.000000 
-1.000000 
-1.000000 
-1.000000 
-1.000000 
-1.000000 
-1.000000 
-1.000000 
1.000000 
1.000000 
1.000000 
1.000000 
1.000000 
1.000000 
-1.000000 
1.000000 
1.000000 
-1.000000 
-1.000000 
-1.000000 
-1.000000 
-1.000000 
1.000000 
1.000000 
-1.000000 
-1.000000 
-1.000000 
-1.000000 
-1.000000 
-1.000000 
1.000000 
-1.000000 
-1.000000 
-1.000000 
-1.000000 
-1.000000 
-1.000000 
-1.000000 
1.000000 
-1.000000 
-1.000000 
1.000000 
1.000000 
1.000000 
1.000000 
1.000000 
1.000000 
-1.000000 
-1.000000 
-1.000000 
-1.000000 
-1.000000 
-1.000000 
1.000000 
1.000000 
-1.000000 
-1.000000 
-1.000000 
-1.000000 
-1.000000 
-1.000000 
1.000000 
1.000000 
1.000000 
1.000000 
1.000000 
-1.000000 
-1.000000 
1.000000 
1.000000 
1.000000 
-1.000000 
-1.000000 
-1.000000 
-1.000000 
-1.000000 
-1.000000 
1.000000 
1.000000 
-1.000000 
-1.000000 
-1.000000 
-1.000000 
-1.000000 
-1.000000 
1.000000 
1.000000 
-1.000000 
-1.000000 
-1.000000 
-1.000000 
-1.000000 
-1.000000 
1.000000 
1.000000 
-1.000000 
-1.000000 
-1.000000 
-1.000000 
-1.000000 
-1.000000 
1.000000 
1.000000 
1.000000 
1.000000 
1.000000 
1.000000 
1.000000 
1.000000 
1.000000 
1.000000 
-1.000000 
-1.000000 
-1.000000 
-1.000000 
-1.000000 
-1.000000 
-1.000000 
1.000000 
-1.000000 
-1.000000 
-1.000000 
-1.000000 
-1.000000 
-1.000000 
-1.000000 
1.000000 
-1.000000 
-1.000000 
-1.000000 
-1.000000 
-1.000000 
-1.000000 
-1.000000 
1.000000 
1.000000 
1.000000 
1.000000 
1.000000 
1.000000 
1.000000 
1.000000 
-1.000000 
-1.000000 
-1.000000 
1.000000 
-1.000000 
-1.000000 
-1.000000 
-1.000000 
-1.000000 
-1.000000 
-1.000000 
1.000000 
-1.000000 
-1.000000 
-1.000000 
-1.000000 
-1.000000 
-1.000000 
-1.000000 
1.000000 
-1.000000 
-1.000000 
-1.000000 
-1.000000 
-1.000000 
-1.000000 
-1.000000 
1.000000 
-1.000000 
-1.000000 
-1.000000 
-1.000000 
-1.000000 
-1.000000 
-1.000000 
1.000000 
-1.000000 
-1.000000 
-1.000000 
-1.000000 
-1.000000 
-1.000000 
-1.000000 
1.000000 
-1.000000 
-1.000000 
-1.000000 
-1.000000 
1.000000 
1.000000 
1.000000 
1.000000 
1.000000 
1.000000 
1.000000 
1.000000 
0.051443 
0.433420 
-0.005593 
0.052568 
0.439129 
0.299646 
0.314139 
0.094497 
0.157201 
0.495300 
0.435852 
-0.175459 
0.374309 
0.089157 
0.137771 
0.259324 
0.275421 
0.294910 
-0.237215 
0.104379 
-0.029436 
-0.333045 
0.295490 
0.365086 
0.373021 
0.164414 
-0.087517 
0.111981 
0.096899 
0.145601 
0.038557 
-0.351658 
0.079022 
-0.467037 
0.200910 
0.018151 
0.332609 
0.015049 
-0.387352 
-0.010190 
0.010349 
-0.451500 
0.314351 
-0.115342 
0.137656 
-0.047878 
-0.356018 
-0.086922 
-0.252967 
-0.093233 
-0.482543 
0.217597 
0.073721 
0.312947 
0.082682 
-0.053257 
-0.022639 
0.495165 
-0.441277 
-0.425740 
0.140766 
0.097280 
-0.277398 
-0.280212 
0.130243 
0.423513 
0.237939 
-0.037148 
-0.061438 
0.350586 
0.452662 
0.448911 
0.399086 
0.267014 
-0.166431 
0.036742 
-0.280864 
-0.022449 
0.449820 
-0.033831 
0.384318 
0.467277 
-0.316235 
-0.041961 
0.280224 
0.266448 
0.404782 
-0.242415 
0.261612 
0.463505 
-0.168154 
-0.097621 
0.060785 
0.054448 
0.122167 
-0.308972 
-0.022039 
-0.139895 
0.153880 
0.416523 
-0.289308 
0.106542 
0.365434 
-0.390222 
-0.126444 
-0.300997 
0.146520 
0.092692 
0.176554 
0.096341 
-0.441140 
0.060872 
0.063617 
-0.257374 
-0.481089 
-0.156159 
-0.490927 
0.423692 
0.101427 
0.270686 
0.387197 
0.433273 
-0.326935 
-0.052018 
-0.012279 
0.295231 
0.139009 
0.465682 
-0.344664 
-0.207111 
0.382204 
-0.133972 
0.399431 
0.247638 
-0.024194 
-0.227013 
0.446640 
-0.377674 
0.365679 
0.123194 
0.218666 
0.424540 
-0.315934 
-0.217716 
-0.332835 
-0.297023 
0.126125 
-0.323761 
-0.373331 
-0.272448 
0.446925 
-0.486134 
-0.339176 
-0.380011 
-0.038152 
0.148545 
0.415221 
-0.399143 
0.114227 
-0.429443 
-0.106254 
-0.003569 
-0.063415 
-0.206823 
-0.255931 
0.412391 
0.066164 
-0.309291 
-0.465284 
-0.068156 
0.313904 
0.253383 
-0.143617 
0.497970 
-0.464334 
0.023548 
-0.299053 
0.161792 
0.199787 
-0.172384 
0.389343 
0.146712 
-0.158518 
-0.449832 
0.266701 
0.303330 
0.198713 
0.181922 
0.404187 
-0.187060 
0.252479 
-0.202067 
0.309371 
-0.310936 
0.091111 
-0.446561 
-0.398546 
-0.342725 
-0.255851 
-0.363829 
0.089119 
-0.441948 
0.389553 
0.445502 
-0.443978 
0.425220 
-0.030950 
-0.243031 
0.087011 
-0.331163 
0.084585 
-0.023645 
0.315549 
0.426068 
0.026523 
0.082250 
0.229398 
-0.274764 
-0.235828 
0.133585 
0.038175 
-0.483349 
0.431518 
-0.152454 
-0.294286 
0.022629 
-0.099015 
-0.192832 
0.179904 
0.145134 
-0.056661 
-0.230978 
0.203186 
-0.167108 
-0.285476 
0.259208 
-0.241888 
0.183574 
-0.483823 
0.345123 
0.352411 
0.100763 
-0.178522 
0.167960 
0.026830 
0.348000 
-0.249790 
-0.243772 
-0.426764 
0.014382 
0.389813 
0.111411 
0.031033 
0.321331 
0.458957 
0.236747 
-0.156041 
-0.140058 
-0.456085 
-0.476137 
-0.494924 
-0.012746 
-0.207114 
0.208262 
0.320146 
0.007410 
-0.032529 
-0.421742 
-0.309016 
-0.016352 
0.423381 
-0.456605 
-0.415589 
-0.255142 
0.211355 
0.111241 
-0.407142 
0.461565 
0.367469 
-0.333906 
-0.024053 
0.257282 
0.277505 
-0.493020 
0.078613 
0.236462 
0.243727 
0.422572 
-0.403596 
0.287642 
0.446435 
-0.398520 
-0.225103 
-0.260679 
0.309743 
-0.404957 
0.246730 
-0.222786 
-0.326699 
0.437714 
0.260862 
-0.403319 
0.481109 
0.345273 
-0.158460 
0.192463 
-0.043486 
-0.065602 
0.154029 
-0.176017 
0.100492 
-0.370024 
-0.418735 
-0.122003 
-0.363044 
0.159878 
-0.385541 
0.380683 
0.082450 
-0.289137 
0.168326 
0.028885 
-0.187657 
0.443222 
0.268206 
-0.377914 
-0.461735 
0.014936 
-0.100700 
-0.288435 
-0.047350 
-0.339838 
-0.191753 
-0.066242 
-0.494565 
0.149787 
-0.373778 
-0.038051 
-0.415815 
0.280251 
0.285932 
0.184677 
0.410226 
0.367197 
-0.437326 
-0.452817 
0.027075 
-0.322867 
0.427866 
-0.390475 
-0.112004 
0.096191 
0.138409 
0.200340 
0.039413 
-0.093385 
0.322426 
0.077678 
0.421551 
-0.278274 
0.289244 
-0.125799 
-0.118112 
-0.402509 
0.307959 
-0.112677 
0.247277 
0.434181 
0.349272 
0.331462 
0.214432 
0.135204 
0.016139 
0.124658 
0.002401 
0.078813 
0.171841 
-0.470524 
0.255946 
0.099707 
-0.360999 
-0.356058 
-0.304102 
0.277410 
0.344281 
0.235311 
-0.315975 
0.166707 
-0.187010 
-0.394424 
0.388433 
-0.397767 
-0.020223 
-0.229679 
-0.300276 
-0.212264 
0.157643 
0.447001 
-0.278082 
0.006915 
0.278463 
0.436349 
-0.357881 
-0.205399 
0.061007 
0.144520 
0.373414 
-0.267152 
0.173996 
0.129359 
0.332555 
0.312997 
0.273301 
-0.471547 
0.090407 
0.117582 
0.263764 
0.274432 
-0.215711 
-0.423247 
0.380009 
-0.327278 
-0.321013 
-0.140214 
-0.056957 
-0.121290 
0.147522 
-0.399314 
-0.174289 
0.369440 
0.107600 
-0.395826 
0.305789 
0.249719 
-0.101225 
-0.133204 
-0.105761 
-0.227811 
0.099644 
-0.431765 
0.401549 
-0.067801 
0.381232 
0.174850 
-0.039348 
-0.028361 
-0.207568 
-0.275585 
-0.253929 
0.076721 
-0.198831 
-0.373920 
0.249443 
-0.019844 
-0.014134 
-0.307514 
0.358866 
-0.366612 
-0.206829 
-0.315423 
-0.497172 
0.400772 
-0.211248 
0.308617 
0.150491 
0.187527 
-0.324587 
-0.455271 
0.459716 
0.275058 
-0.387036 
0.361265 
-0.292743 
0.494196 
0.036115 
0.167908 
-0.034165 
0.328546 
0.392324 
0.211906 
-0.094733 
-0.306507 
0.337986 
-0.345289 
0.173648 
-0.176148 
-0.152804 
0.032514 
-0.042760 
0.140368 
0.217092 
-0.039933 
0.041140 
-0.494157 
-0.231316 
-0.308370 
0.193370 
-0.055903 
-0.263640 
0.153087 
-0.280845 
-0.150676 
0.014352 
-0.073588 
-0.156480 
-0.449534 
-0.405680 
0.309355 
0.379013 
0.486644 
0.021261 
-0.215720 
-0.319864 
-0.140753 
-0.061010 
0.353785 
0.183098 
0.286187 
-0.113701 
-0.359662 
-0.073445 
-0.396610 
0.100405 
0.467694 
-0.390767 
0.369090 
-0.340676 
0.302604 
-0.186813 
-0.104316 
-0.044310 
0.032342 
0.245008 
0.470042 
0.458753 
-0.411472 
-0.479492 
-0.446927 
0.397883 
0.399521 
-0.460283 
-0.080856 
-0.316199 
-0.280147 
0.278391 
0.122791 
-0.426362 
-0.038511 
-0.091022 
-0.040063 
0.101827 
0.335533 
0.063327 
-0.297768 
0.303227 
0.172560 
-0.428678 
0.462551 
-0.024836 
-0.115491 
-0.141765 
0.430854 
0.416851 
-0.396756 
0.400896 
0.375604 
-0.308228 
0.421405 
0.428678 
-0.410345 
0.320926 
0.468395 
0.008799 
-0.495274 
-0.311752 
-0.212811 
0.127518 
-0.238114 
0.248678 
-0.463504 
0.221822 
-0.149495 
0.372028 
-0.214851 
0.052738 
0.175255 
0.457709 
0.124060 
0.137806 
-0.067127 
-0.491431 
0.496042 
-0.136273 
0.425420 
-0.400715 
-0.235376 
0.301024 
-0.208943 
-0.313971 
0.229702 
-0.119288 
-0.493046 
0.198096 
0.389511 
-0.488319 
0.386344 
-0.323300 
0.139199 
-0.351770 
0.425379 
0.175694 
0.370053 
-0.224116 
0.047723 
-0.344798 
0.328622 
-0.277022 
-0.387089 
-0.047319 
0.360784 
0.045784 
-0.038750 
0.356826 
0.409512 
-0.113331 
0.456111 
-0.325864 
-0.312307 
-0.252832 
-0.139836 
0.417395 
0.127880 
-0.132882 
0.115491 
0.017391 
-0.121201 
0.001835 
0.194091 
-0.482002 
0.150066 
0.119470 
0.193692 
0.020118 
0.395354 
-0.258585 
0.175320 
0.223975 
-0.035607 
0.288231 
-0.323344 
-0.174823 
-0.165984 
0.137906 
-0.317997 
-0.256472 
-0.475424 
-0.361886 
-0.082337 
-0.287731 
-0.114718 
0.277828 
-0.370337 
-0.486839 
-0.355054 
0.245154 
0.030552 
0.023745 
-0.253010 
-0.275357 
0.041743 
0.397055 
0.344113 
-0.264565 
-0.082826 
0.239467 
-0.023150 
-0.407506 
-0.036558 
0.441243 
0.380725 
0.140098 
-0.233580 
-0.285259 
-0.221995 
-0.051577 
-0.041731 
-0.197420 
0.086537 
0.375932 
0.014849 
0.471818 
0.153760 
0.144512 
0.484980 
0.298706 
-0.110333 
0.015532 
-0.177549 
0.136656 
0.240175 
0.364194 
0.033712 
0.084288 
-0.400371 
0.450885 
-0.176245 
0.076479 
-0.456621 
0.287197 
0.017722 
0.424104 
-0.072705 
0.284142 
-0.361155 
0.205300 
-0.267435 
0.097114 
-0.492120 
0.319102 
-0.026955 
0.022729 
0.290920 
-0.373195 
-0.332759 
0.275899 
0.425511 
0.056908 
-0.208569 
-0.252038 
-0.306436 
-0.468394 
-0.387843 
0.227276 
0.115894 
-0.288214 
0.178161 
0.439649 
0.288265 
0.221540 
0.226846 
-0.194013 
0.145644 
-0.345859 
-0.409870 
0.284489 
0.359441 
-0.177305 
-0.118397 
0.367321 
-0.358204 
0.354648 
-0.109950 
0.432716 
0.481453 
0.057291 
0.208616 
0.406964 
-0.385801 
-0.499953 
-0.345073 
-0.192237 
-0.468347 
-0.232917 
-0.464961 
0.147548 
-0.021131 
0.213200 
0.087197 
-0.232866 
-0.065260 
-0.185957 
0.073122 
-0.419616 
-0.031815 
0.163252 
0.364873 
-0.172374 
0.485946 
-0.253524 
-0.305052 
-0.372257 
-0.398876 
0.084998 
-0.439541 
-0.417423 
-0.357711 
0.269074 
0.489541 
-0.243511 
0.269121 
-0.355532 
0.064252 
0.300775 
-0.088449 
0.099291 
-0.051678 
0.390420 
-0.187509 
-0.464481 
-0.342445 
0.247231 
-0.150438 
0.230677 
0.327615 
0.317747 
-0.106072 
0.192488 
-0.354627 
-0.120126 
0.438963 
-0.159679 
0.007617 
-0.459913 
0.425318 
0.068076 
-0.377336 
-0.432392 
-0.162850 
-0.387795 
-0.175904 
-0.393728 
-0.243327 
0.388348 
0.407046 
0.168224 
-0.012361 
-0.144631 
0.058645 
0.300129 
-0.109112 
0.216199 
0.047360 
0.240451 
-0.053124 
-0.125025 
0.058198 
0.340804 
-0.432538 
0.203571 
-0.279321 
-0.493574 
-0.456109 
0.228296 
-0.453487 
0.469210 
-0.203628 
-0.330823 
-0.463182 
0.133522 
-0.218618 
-0.139086 
0.239794 
0.038055 
-0.250738 
0.146840 
-0.293720 
0.236901 
-0.497791 
0.264925 
0.037030 
-0.106903 
-0.018876 
-0.415610 
-0.366452 
0.428000 
-0.040635 
0.191745 
0.268804 
0.026827 
-0.104684 
0.489483 
0.033253 
-0.060793 
0.217778 
0.079765 
-0.091583 
-0.485850 
0.248942 
-0.054765 
0.147672 
-0.469676 
0.306149 
-0.112534 
0.068379 
-0.444589 
-0.465693 
0.274659 
0.292311 
-0.463484 
0.039584 
-0.170658 
-0.070387 
-0.479292 
-0.086268 
0.063161 
0.448708 
0.373097 
-0.245094 
0.217512 
-0.100076 
0.150222 
0.206995 
0.433176 
-0.410570 
-0.075226 
0.012941 
-0.002153 
-0.061076 
-0.238117 
0.443081 
-0.413404 
-0.207793 
0.249230 
-0.025937 
0.360587 
0.304641 
0.008369 
0.135246 
0.096952 
0.044885 
-0.325170 
0.426294 
0.474499 
-0.304462 
-0.159974 
0.037660 
-0.355754 
-0.286878 
0.292566 
0.361759 
0.113046 
-0.057211 
0.068754 
0.046222 
0.032218 
0.493528 
-0.440837 
-0.469935 
-0.067548 
-0.178953 
0.473147 
0.019048 
0.113254 
0.222377 
0.493110 
-0.026159 
0.027017 
0.001480 
-0.390913 
-0.376031 
-0.453635 
-0.216083 
-0.449737 
-0.479136 
-0.020545 
-0.109711 
0.058524 
0.123701 
0.103411 
-0.148910 
-0.014540 
-0.283543 
0.293879 
-0.445786 
0.262679 
-0.173903 
-0.452258 
0.321842 
-0.143838 
-0.019807 
-0.357111 
-0.170691 
0.499241 
0.256143 
-0.448315 
0.492352 
-0.270016 
0.078702 
-0.006169 
-0.160929 
0.202672 
0.040197 
0.122988 
0.252935 
0.061060 
-0.397557 
-0.356776 
-0.380416 
0.226144 
0.246635 
-0.029326 
-0.288396 
0.463092 
-0.235447 
-0.234182 
0.225771 
0.090649 
-0.186440 
0.047613 
0.446811 
0.293753 
0.190502 
-0.223880 
0.292995 
-0.053355 
-0.172195 
0.285346 
0.176628 
0.406508 
-0.220822 
-0.484301 
0.109179 
0.319374 
0.138687 
-0.137885 
-0.119566 
0.241130 
0.005339 
0.000019 
-0.032726 
-0.248026 
0.470693 
0.178878 
-0.284934 
-1.000000 
-1.000000 
1.000000 
1.000000 
-1.000000 
-1.000000 
-1.000000 
-1.000000 
-1.000000 
-1.000000 
1.000000 
1.000000 
1.000000 
-1.000000 
-1.000000 
-1.000000 
-1.000000 
1.000000 
1.000000 
-1.000000 
1.000000 
1.000000 
-1.000000 
-1.000000 
-1.000000 
1.000000 
-1.000000 
-1.000000 
-1.000000 
1.000000 
-1.000000 
-1.000000 
-1.000000 
1.000000 
-1.000000 
-1.000000 
-1.000000 
1.000000 
1.000000 
-1.000000 
1.000000 
1.000000 
1.000000 
1.000000 
1.000000 
1.000000 
1.000000 
-1.000000 
1.000000 
-1.000000 
-1.000000 
-1.000000 
-1.000000 
-1.000000 
1.000000 
1.000000 
1.000000 
-1.000000 
-1.000000 
-1.000000 
-1.000000 
-1.000000 
-1.000000 
1.000000 
-0.064784 
0.467868 
0.079494 
-0.408686 
-0.118238 
0.178351 
0.426364 
0.344482 
0.122214 
-0.112989 
0.183833 
-0.303572 
-0.350118 
0.306322 
0.180170 
-0.269323 
0.321129 
0.392815 
-0.231916 
-0.409632 
-0.285203 
-0.496769 
-0.380621 
-0.353865 
0.403394 
-0.339865 
0.157522 
0.147450 
-0.072298 
0.484202 
-0.319904 
0.362918 
0.452070 
0.259590 
0.454232 
-0.166168 
-0.062058 
0.380596 
-0.321686 
-0.439844 
-0.232393 
0.362147 
-0.243417 
-0.082511 
0.168469 
0.436754 
0.148167 
-0.010403 
0.329569 
0.416250 
0.079965 
-0.455634 
0.419481 
0.199344 
-0.309499 
0.322875 
0.359479 
0.348023 
-0.029675 
-0.212819 
0.332225 
0.150421 
-0.349901 
0.284295 
B 
C 
D 
E 
F 
G 
H 
I 
_ 
_ 
_ 
_ 
_ 
_ 
_ 
_ 
_ 
_ 
_ 
_ 
_ 
_ 
_ 
_ 
A 
_ 
